34 10
17 -0.919299 -1.604779 0.524704 -0.480272 -0.180508 0.083627 -0.722738 1.400407 1.016712 -0.805682
16 -0.692213 -1.412065 -0.684131 -0.553016 0.105846 0.521346 -1.207326 1.034442 0.741919 -0.653271
3 0.709635 -0.584325 -0.915492 0.962070 -0.444061 -0.722723 -0.259752 -1.210609 -1.704458 -0.454971
9 -0.326155 -0.344377 0.712940 1.036722 0.259515 0.413671 2.029673 0.964295 -0.824284 -0.260042
10 -0.377662 -0.183492 0.080223 1.159722 0.013704 0.275392 1.611630 1.629752 -1.085510 -0.539982
18 -0.421030 -1.240856 1.136879 -1.010682 -0.233176 0.650669 -0.854280 0.907757 1.507087 -0.217312
2 0.879047 -0.770736 -0.746004 0.438076 -1.073673 -0.676849 -0.714259 -0.387645 -1.101898 -0.616624
15 -1.689248 -1.512255 -0.864227 -0.042992 0.422743 0.076122 -0.915886 0.742211 0.387044 -0.552010
34 1.152905 -0.689589 -0.560847 -0.554759 -0.967685 -1.054660 0.196258 0.072486 0.040515 -0.970523
1 1.555530 -0.851534 -0.417993 0.010185 -1.212730 -0.979955 -0.395653 -0.486597 -0.697451 -0.784602
33 1.236623 -0.254414 -0.414821 -1.194769 -1.033212 -1.160686 0.511401 -0.222637 0.538736 -0.869229
29 0.695288 2.145994 -0.235395 -0.843056 0.370923 -0.127453 -0.117709 -0.068740 0.322166 -0.102357
4 0.128219 -0.521360 -0.487314 1.112964 0.011678 -0.483086 0.226406 -1.385551 -1.789273 -0.127065
11 -0.552553 -0.469026 -0.005738 1.048675 0.249309 0.484227 0.965127 2.041701 -1.170041 -0.606503
28 0.617361 2.501001 -0.359241 -0.431400 0.599706 0.033607 -0.451967 0.152855 -0.008368 0.023613
20 0.017389 -1.060990 1.370442 -0.382166 0.262386 1.039584 -0.571711 0.270778 1.511444 1.150729
32 0.991639 0.381056 -0.626605 -1.195203 -0.766511 -1.168714 0.764522 -0.292553 0.424061 -0.939319
19 0.056162 -1.022584 2.028327 -0.696401 0.233108 1.018467 -0.790565 0.432657 1.164150 0.005651
27 0.207786 2.544684 -0.100353 -0.530964 0.789388 0.183499 -0.691885 -0.161712 0.225134 0.574724
8 -0.150662 -0.541659 0.747334 1.376069 0.260260 0.184365 2.001469 0.227723 -1.021079 0.103079
31 1.134127 1.018117 -0.341208 -1.159393 -0.651875 -0.833602 0.678247 -0.496379 0.649240 -0.364141
30 0.826609 1.760022 -0.512375 -0.792598 -0.037460 -0.646719 0.211495 0.120794 0.393922 -0.576547
21 -0.275445 -0.301714 1.158678 0.031746 -0.025119 1.202165 -0.672514 0.963533 1.171130 1.203536
26 -0.583631 2.254791 0.015111 -0.250879 0.394690 0.413822 -0.203993 -0.079978 0.227952 1.122172
14 -1.411211 -1.056710 -1.419382 0.439937 0.535227 0.179870 -0.866644 1.051050 -0.112843 -0.459253
24 -0.685361 1.433539 0.790417 0.812263 0.422463 1.211040 -0.754411 0.550751 -0.352770 1.464822
25 -0.752533 2.009837 0.383945 0.227163 0.837889 0.974393 -0.540480 0.343411 -0.056597 1.300850
5 0.229858 -0.324244 -0.165647 1.112759 0.100269 -0.431865 1.222636 -1.467993 -1.589636 -0.385422
6 -0.201261 0.082213 0.061192 0.895623 0.676215 -0.330981 1.463981 -0.911024 -0.997763 0.349529
7 -0.100940 0.010406 1.015870 0.905843 0.140275 0.336546 1.543467 -0.778780 -0.929910 0.127357
12 -0.652369 -0.773835 -0.796751 1.110775 0.632940 0.576431 0.512413 1.670853 -0.579133 -0.733077
23 -0.607064 0.566001 0.405507 0.938954 0.095553 1.268144 -0.722629 0.484492 0.499764 1.485668
22 -0.517188 0.051909 1.225146 0.124466 -0.000165 1.127823 -0.962129 0.676043 0.371160 1.464291
13 -1.579687 -0.966057 -0.807769 0.441252 0.900826 0.321319 -0.076861 1.107792 -0.723072 -0.518074
