34 10
34 -0.006327 0.201132 -0.550136 -0.086736 0.179593 -0.374417 -0.789379 0.624165 0.586702 -0.151843
1 0.094505 0.043796 -0.229940 0.156263 -0.291131 -0.483647 -0.126931 -0.573273 -0.801994 -0.569403
33 -0.355898 0.506667 0.044414 -0.187980 -0.304238 -0.409748 -0.842302 0.836314 0.630177 -0.204262
3 0.722071 0.166127 -0.633460 0.433687 0.003019 0.285342 -0.443299 0.170545 -0.330985 0.169614
2 -0.020249 0.053541 -0.809832 0.065875 -0.453971 -0.028110 -0.347451 0.359109 -1.024664 -0.748024
4 0.104224 -0.085589 -0.371609 0.237719 -0.230344 -0.230908 -0.052962 0.588911 -1.375631 -0.303071
32 0.153593 0.762443 -0.498845 -0.575843 -0.036097 0.270267 -0.320113 -0.177722 -0.050827 0.709868
24 -0.288272 0.528346 0.337481 -0.556114 0.522924 0.006717 -0.968827 -0.061937 0.401210 0.740602
14 0.433657 0.149610 -0.428078 0.084175 0.136392 -0.038491 0.277816 0.283637 -0.576214 -0.391947
9 0.434493 0.209507 -0.098433 -0.162963 -0.653023 0.140716 -0.226044 0.379385 0.076452 -0.019901
7 -0.857863 -0.777706 -0.346279 0.527405 -1.272432 -0.667525 0.244091 -0.981252 -0.352519 -0.269707
6 -0.659835 -0.495211 -0.521013 0.624509 -1.124869 -0.709984 0.690974 -1.268528 -0.410323 -0.105177
28 -0.040271 1.213852 -0.029842 -0.189792 0.598574 0.097541 -0.178387 0.187932 0.318472 0.718415
30 -0.158394 0.656635 -0.235171 -0.789406 0.222627 -0.528672 -0.717947 0.394342 1.101780 -0.050136
31 0.814531 0.221999 -0.067037 0.278116 -0.162324 0.095849 -0.629746 0.342003 0.505417 -0.718917
8 0.502262 0.083432 -0.587431 0.396864 -0.115486 0.039460 -0.016068 0.259943 -1.102948 -0.497748
5 -0.208318 -0.203796 -0.324430 0.087097 -0.986882 -0.417460 0.690422 -1.364999 -0.562642 0.006763
11 -0.310302 -0.777898 -0.366011 0.001268 -1.175913 -0.386247 0.182093 -1.109038 -0.720547 -0.218896
26 -0.644049 1.457956 -0.298983 -0.177481 0.796133 0.131603 -0.679173 -0.075156 0.135842 1.159976
25 -0.552216 1.308046 -0.229824 -0.156618 0.715461 0.233036 -0.759788 -0.395382 -0.384699 1.330966
20 0.321478 -0.251450 -0.228807 -0.183349 -0.057738 0.290256 -0.126828 0.127739 -0.344319 -0.577245
29 0.109734 1.013208 -0.109409 0.145671 -0.218096 0.286286 0.069273 0.529476 -0.245422 0.526074
17 -0.829970 -0.988416 0.006338 1.110904 -1.306386 -0.954025 0.560335 -1.429923 -0.216241 -0.438756
19 0.298860 0.344090 -0.094602 -0.710392 -0.272100 -0.079209 -0.867930 0.798453 0.937376 0.088122
15 0.245007 0.347048 -0.138177 -0.692301 -0.440151 -0.087680 -0.738770 0.854432 0.864968 0.114959
22 0.189557 -0.341190 -0.370042 0.119909 -0.209310 0.195055 0.078603 -0.147773 -0.998291 -0.785228
18 0.315292 -0.439454 -0.312910 0.144472 -0.176932 0.257911 0.178835 -0.170607 -1.012597 -0.838945
23 0.188666 0.333639 -0.128119 -0.613182 -0.397611 -0.083670 -0.868024 0.734145 1.051462 0.217605
13 0.518951 -0.268960 -0.983017 -0.066162 -0.221171 0.021792 0.403925 -0.097443 -1.426848 -0.402492
16 0.288142 0.325279 -0.073903 -0.651797 -0.399609 -0.094895 -0.776670 0.650449 0.931936 0.161064
10 0.458729 0.488077 -0.023507 0.091152 -0.132800 0.045681 -0.012260 1.061859 0.160218 -0.146967
21 0.306698 0.343801 0.002914 -0.619332 -0.324117 -0.114922 -0.649835 0.712446 1.037943 0.169359
27 -0.262722 -0.091328 0.369098 -0.851518 0.475375 -0.329955 -0.814603 0.587294 0.969399 -0.104127
12 -0.007637 -0.492235 -0.288037 -0.096771 -0.541296 0.143396 0.530537 -0.495852 -0.703266 -0.283699
